#pragma once
#include <cstdarg>
namespace Eloquent {
    namespace ML {
        namespace Port {
            class SVM {
                public:
                    /**
                    * Predict class for features vector
                    */
                    int predict(float *x) {
                        float kernels[42] = { 0 };
                        float decisions[3] = { 0 };
                        int votes[3] = { 0 };
                        kernels[0] = compute_kernel(x,   16.98  , 14.02  , 3.62  , 6.26  , 6.26  , 7.24  , 10.219999  , 34.52  , 22.299999  , 17.719999  , 18.799999  , 17.719999  , 13.54  , 12.0  , 7.24  , 3.62  , 0.0  , 0.0  , 0.0  , 5.1  , 8.08  , 8.08  , 5.1  , 0.0  , 5.1  , 3.62  , 6.26  , 6.26  , 10.86  , 9.559999  , 12.54  , 10.86  , 10.219999  , 8.08  , 3.62  , 0.0  , 0.0  , 0.0  , 6.26  , 6.26  , 6.26  , 6.26  , 7.24  , 6.26  , 8.08  , 10.219999  , 10.219999  , 9.559999  , 9.559999  , 9.559999  , 9.559999  , 8.86  , 8.86  , 8.08  , 8.08  , 7.24  , 6.26  , 6.26  , 5.1  , 5.1  , 3.62  , 3.62  , 0.0  , 0.0 );
                        kernels[1] = compute_kernel(x,   37.799999  , 10.86  , 14.48  , 15.339999  , 14.48  , 12.0  , 8.86  , 6.26  , 3.62  , 0.0  , 0.0  , 0.0  , 3.62  , 6.26  , 14.02  , 13.54  , 8.86  , 6.26  , 0.0  , 0.0  , 3.62  , 0.0  , 0.0  , 0.0  , 0.0  , 0.0  , 0.0  , 0.0  , 0.0  , 0.0  , 0.0  , 0.0  , 0.0  , 0.0  , 0.0  , 3.62  , 0.0  , 0.0  , 0.0  , 0.0  , 0.0  , 0.0  , 0.0  , 0.0  , 3.62  , 5.1  , 5.1  , 6.26  , 6.26  , 7.24  , 7.24  , 7.24  , 7.24  , 7.24  , 7.24  , 7.24  , 7.24  , 7.24  , 7.24  , 6.26  , 6.26  , 6.26  , 5.1  , 5.1 );
                        kernels[2] = compute_kernel(x,   61.32  , 22.879999  , 24.0  , 23.18  , 21.1  , 16.18  , 12.54  , 9.559999  , 9.559999  , 8.08  , 6.26  , 5.1  , 5.1  , 6.26  , 7.24  , 9.559999  , 12.0  , 20.139999  , 5.1  , 5.1  , 7.24  , 6.26  , 5.1  , 7.24  , 5.1  , 6.26  , 3.62  , 5.1  , 0.0  , 0.0  , 0.0  , 0.0  , 6.26  , 6.26  , 8.86  , 10.219999  , 9.559999  , 12.0  , 12.0  , 13.04 
 , 13.54  , 14.02  , 14.48  , 14.02  , 14.92  , 14.92  , 13.04  , 13.54  , 10.86  , 10.86  , 10.86  , 9.559999  , 9.559999  , 9.559999  , 8.86  , 8.08  , 7.24  , 7.24  , 7.24  , 6.26  , 6.26  , 5.1  , 5.1  , 5.1 );
                        kernels[3] = compute_kernel(x,   26.84  , 16.18  , 8.86  , 9.559999  , 12.54  , 12.0  , 18.799999  , 16.98  , 16.98  , 16.98  , 14.92  , 10.86  , 10.86  , 8.86  , 9.559999  , 8.86  , 7.24  , 5.1  , 0.0  , 0.0  , 0.0  , 0.0  , 0.0  , 0.0  , 0.0  , 5.1  , 6.26  , 5.1  , 7.24  , 8.08  , 10.219999  , 8.86  , 9.559999  , 9.559999  , 8.08  , 8.08  , 8.08  , 8.86  , 10.86  , 10.219999  , 10.219999  , 9.559999  , 8.86  , 7.24  , 6.26  , 5.1  , 5.1  , 5.1  , 5.1  , 5.1  , 5.1  , 5.1  , 5.1  , 5.1  , 5.1  , 6.26 
 , 6.26  , 3.62  , 0.0  , 0.0  , 0.0  , 0.0  , 0.0  , 0.0 );
                        kernels[4] = compute_kernel(x,   21.719999  , 21.1  , 25.599998  , 20.779999  , 16.98  , 15.78  , 11.44  , 10.219999  , 5.1  , 5.1  , 9.559999  , 24.0  , 24.539999  , 22.6  , 23.18  , 20.459999  , 16.18  , 12.0  , 8.08  , 5.1  , 3.62  , 0.0  
, 0.0  , 0.0  , 0.0  , 0.0  , 0.0  , 3.62  , 3.62  , 3.62  , 5.1  , 5.1  , 5.1  , 7.24  , 5.1  , 0.0  , 0.0  , 0.0  , 0.0  , 0.0  , 0.0  , 0.0  , 0.0  , 3.62  , 3.62  , 3.62  , 3.62  , 3.62  , 3.62  , 3.62  , 3.62  , 5.1  , 5.1  , 5.1  , 5.1  , 3.62  , 3.62  , 0.0  
, 0.0  , 0.0  , 0.0  , 0.0  , 0.0  , 0.0 );
                        kernels[5] = compute_kernel(x,   20.459999  , 22.299999  , 14.02  , 17.359999  , 28.039999  , 35.279999  , 21.719999  , 20.459999  , 20.459999  , 22.299999  , 17.359999  , 15.339999  , 11.44  , 8.86  , 6.26  , 3.62  , 0.0  , 0.0  , 5.1  , 18.1  , 7.24  , 3.62  , 0.0  , 0.0  , 3.62  , 5.1  , 5.1  , 7.24  , 8.08  , 7.24  , 6.26  , 7.24  , 8.08  , 7.24  , 6.26  , 0.0  , 3.62 
 , 0.0  , 0.0  , 0.0  , 0.0  , 0.0  , 0.0  , 0.0  , 0.0  , 0.0  , 0.0  , 0.0  , 0.0  , 3.62  , 5.1  , 6.26  , 8.08  , 8.08  , 8.86  , 8.08  , 8.08  , 8.08  , 8.08  , 8.86  , 8.86  , 9.559999  , 8.86  , 8.86 );
                        kernels[6] = compute_kernel(x,   28.719999  , 28.5  , 26.34  , 25.599998  , 25.84  , 25.599998  , 23.74  , 16.18  , 12.54  , 0.0  , 6.26  , 8.08  , 12.54  , 67.239998  , 35.099998  , 17.719999  , 14.92  , 16.18  , 14.92  , 12.0  , 8.86  , 7.24  , 5.1  , 5.1  , 0.0  , 5.1  , 7.24  , 5.1  , 10.219999  , 26.599998  , 26.84  , 14.48  , 8.86  , 8.08  , 8.08  , 8.08  , 9.559999 
 , 13.54  , 16.58  , 13.04  , 13.54  , 12.54  , 10.86  , 9.559999  , 6.26  , 5.1  , 3.62  , 0.0  , 0.0  , 0.0  , 0.0  , 0.0  , 0.0  , 0.0  , 0.0  , 0.0  , 3.62  , 5.1  , 6.26  , 7.24  , 8.86  , 9.559999  , 10.219999  , 11.44 );
                        kernels[7] = compute_kernel(x,   25.08  , 25.34  , 26.34  , 20.459999  , 13.54  , 8.86  , 8.08  , 16.58  , 23.18  , 25.34  , 22.879999  , 19.139999  , 17.719999  , 16.98  , 14.92  , 12.54  , 10.219999  , 9.559999  , 7.24  , 5.1  , 6.26  , 8.86  , 9.559999  , 8.86  , 9.559999  , 14.02  , 8.08  , 3.62  , 0.0  , 5.1  , 8.08  , 0.0  , 0.0  , 0.0  , 0.0  , 0.0  , 0.0  , 0.0  , 
3.62  , 8.08  , 5.1  , 3.62  , 0.0  , 0.0  , 0.0  , 3.62  , 0.0  , 0.0  , 0.0  , 3.62  , 3.62  , 6.26  , 5.1  , 6.26  , 5.1  , 6.26  
, 6.26  , 6.26  , 6.26  , 7.24  , 8.08  , 6.26  , 6.26  , 5.1 );
                        kernels[8] = compute_kernel(x,   18.1  , 17.359999  , 16.98  , 14.02  , 12.54  , 10.86  , 6.26  , 7.24  , 7.24  , 7.24  , 6.26  , 7.24  , 7.24  , 6.26  , 8.08  , 8.08  , 8.08  , 0.0  , 0.0  , 3.62  , 0.0  , 6.26  , 6.26  , 6.26  , 0.0  , 0.0 
 , 5.1  , 0.0  , 3.62  , 3.62  , 3.62  , 0.0  , 0.0  , 3.62  , 6.26  , 6.26  , 8.08  , 8.08  , 8.08  , 10.219999  , 9.559999  , 10.219999  , 10.219999  , 11.44  , 10.86  , 11.44  , 10.86  , 10.86  , 11.44  , 11.44  , 10.219999  , 9.559999  , 9.559999  , 8.86  , 8.08  , 8.08  , 7.24  , 7.24  , 7.24  , 6.26  , 6.26  , 5.1  , 5.1  , 5.1 );
                        kernels[9] = compute_kernel(x,   22.299999  , 18.799999  , 19.82  , 16.98  , 14.92  , 13.54  , 13.04  , 13.04  , 12.54  , 11.44  , 9.559999  , 8.86  , 22.879999  , 22.02  , 27.32  , 18.459999  , 5.1  , 3.62  , 9.559999  , 9.559999  , 13.54  , 10.86  , 8.86  , 5.1  , 8.08  , 8.86  , 8.08  , 10.219999  , 10.86  , 10.86  , 12.0  , 13.04  , 8.86  , 5.1  , 3.62  , 3.62  , 0.0  
, 3.62  , 3.62  , 7.24  , 5.1  , 9.559999  , 12.0  , 9.559999  , 8.86  , 11.44  , 10.86  , 11.44  , 12.54  , 10.86  , 11.44  , 10.86 
 , 12.54  , 11.44  , 9.559999  , 12.54  , 8.08  , 8.86  , 9.559999  , 8.08  , 8.86  , 8.08  , 6.26  , 7.24 );
                        kernels[10] = compute_kernel(x,   31.959999  , 22.879999  , 15.339999  , 19.139999  , 23.18  , 18.459999  , 13.04  , 10.219999  , 14.92  , 6.26  , 12.0  , 22.6  , 10.86  , 16.18  , 18.799999  , 40.779999  , 24.279999  , 22.02  , 5.1  , 13.54 
 , 15.339999  , 13.04  , 15.339999  , 10.86  , 10.219999  , 9.559999  , 6.26  , 5.1  , 3.62  , 3.62  , 0.0  , 0.0  , 0.0  , 0.0  , 0.0  , 0.0  , 3.62  , 3.62  , 5.1  , 5.1  , 6.26  , 7.24  , 7.24  , 7.24  , 7.24  , 7.24  , 8.08  , 9.559999  , 10.219999  , 10.86  , 10.86  , 12.0  , 12.54  , 13.54  , 14.02  , 13.54  , 13.54  , 13.04  , 13.04  , 13.04  , 12.54  , 12.0  , 12.0  , 11.44 );
                        kernels[11] = compute_kernel(x,   14.92  , 12.0  , 12.54  , 13.54  , 12.54  , 12.54  , 9.559999  , 5.1  , 0.0  , 0.0  , 0.0  , 0.0  , 0.0  , 0.0  , 0.0  , 0.0  , 0.0  , 0.0  , 3.62  , 3.62  , 5.1  , 7.24  , 8.86  , 8.08  , 5.1  , 3.62  , 0.0 
 , 0.0  , 0.0  , 0.0  , 0.0  , 0.0  , 0.0  , 0.0  , 0.0  , 0.0  , 0.0  , 0.0  , 3.62  , 3.62  , 3.62  , 3.62  , 3.62  , 3.62  , 3.62 
 , 5.1  , 5.1  , 5.1  , 5.1  , 5.1  , 3.62  , 3.62  , 3.62  , 3.62  , 3.62  , 3.62  , 0.0  , 0.0  , 0.0  , 0.0  , 0.0  , 0.0  , 0.0  
, 0.0 );
                        kernels[12] = compute_kernel(x,   16.58  , 18.1  , 16.98  , 15.78  , 46.360001  , 25.08  , 20.779999  , 19.48  , 17.719999  , 16.18  , 15.339999  , 13.54  , 8.08  , 3.62  , 3.62  , 5.1  , 6.26  , 7.24  , 7.24  , 6.26  , 9.559999  , 16.18  , 12.54  , 20.779999  , 15.339999  , 15.78  , 5.1  , 3.62  , 10.219999  , 13.04  , 14.02  , 10.86  , 10.219999  , 8.86  , 13.04  , 12.0 
 , 8.86  , 6.26  , 8.86  , 7.24  , 5.1  , 6.26  , 0.0  , 0.0  , 6.26  , 3.62  , 3.62  , 6.26  , 8.08  , 8.86  , 10.86  , 8.86  , 8.86  , 10.86  , 8.08  , 8.08  , 8.08  , 7.24  , 7.24  , 7.24  , 7.24  , 8.08  , 8.08  , 9.559999 );
                        kernels[13] = compute_kernel(x,   21.4  , 16.58  , 6.26  , 3.62  , 0.0  , 0.0  , 11.44  , 14.92  , 14.02  , 14.02  , 12.54  , 10.86  , 8.08  , 6.26  , 8.08  , 9.559999  , 9.559999  , 9.559999  , 9.559999  , 11.44  , 3.62  , 3.62  , 3.62  , 3.62  , 5.1  , 3.62  , 3.62  , 6.26  , 8.86  , 8.86  , 10.219999  , 11.44  , 11.44  , 9.559999  , 7.24  , 5.1  , 0.0  , 0.0  , 0.0  , 0.0  , 0.0  , 0.0  , 0.0  , 0.0  , 0.0  , 0.0  , 0.0  , 3.62  , 3.62  , 5.1  , 6.26  , 5.1  , 0.0  , 0.0  , 0.0  , 0.0  , 0.0  , 0.0  
, 0.0  , 3.62  , 5.1  , 5.1  , 5.1  , 5.1 );
                        kernels[14] = compute_kernel(x,   18.1  , 17.719999  , 17.719999  , 14.48  , 12.0  , 6.26  , 3.62  , 0.0  , 0.0  , 0.0  , 0.0  , 18.1  , 16.18  , 11.44  , 8.08  , 5.1  , 5.1  , 6.26  , 9.559999  , 8.86  , 13.04  , 18.459999  , 15.339999  , 10.219999  , 14.02  , 14.48  , 9.559999  , 10.86  , 5.1  , 6.26  , 0.0  , 0.0  , 0.0  , 5.1  , 3.62  , 10.86  , 9.559999  , 8.08  , 8.86  , 10.219999  , 10.219999  , 9.559999  , 8.86  , 11.44  , 9.559999  , 9.559999  , 11.44  , 10.86  , 9.559999  , 10.86  , 9.559999  
, 9.559999  , 8.86  , 3.62  , 3.62  , 3.62  , 3.62  , 5.1  , 5.1  , 5.1  , 5.1  , 5.1  , 5.1  , 5.1 );
                        kernels[15] = compute_kernel(x,   21.4  , 21.4  , 19.82  , 16.58  , 12.54  , 9.559999  , 7.24  , 5.1  , 3.62 
 , 5.1  , 8.86  , 13.04  , 12.0  , 9.559999  , 3.62  , 3.62  , 5.1  , 7.24  , 5.1  , 8.08  , 6.26  , 8.08  , 8.08  , 3.62  , 3.62  , 
10.219999  , 0.0  , 0.0  , 0.0  , 3.62  , 5.1  , 5.1  , 6.26  , 6.26  , 6.26  , 8.08  , 8.86  , 10.219999  , 9.559999  , 9.559999  , 
9.559999  , 9.559999  , 8.08  , 8.86  , 8.86  , 8.08  , 6.26  , 3.62  , 0.0  , 0.0  , 0.0  , 0.0  , 0.0  , 0.0  , 0.0  , 0.0  , 0.0  
, 0.0  , 0.0  , 0.0  , 0.0  , 0.0  , 0.0  , 0.0 );
                        kernels[16] = compute_kernel(x,   21.1  , 28.5  , 28.5  , 23.18  , 16.18  , 10.219999  , 9.559999  , 11.44  , 30.059999  , 22.299999  , 24.82  , 22.02  , 19.82  , 19.139999  , 14.92  , 8.86  , 5.1  , 3.62  , 3.62  , 0.0  , 0.0  , 5.1  , 8.08 
 , 8.08  , 11.44  , 8.86  , 14.02  , 13.04  , 12.0  , 8.86  , 9.559999  , 6.26  , 8.86  , 8.86  , 10.219999  , 6.26  , 7.24  , 7.24  
, 7.24  , 3.62  , 6.26  , 7.24  , 7.24  , 7.24  , 8.86  , 6.26  , 6.26  , 0.0  , 3.62  , 5.1  , 5.1  , 8.86  , 9.559999  , 10.86  , 10.219999  , 12.54  , 14.02  , 11.44  , 12.0  , 9.559999  , 12.0  , 8.86  , 5.1  , 3.62 );
                        kernels[17] = compute_kernel(x,   20.139999  , 16.18  , 15.339999  , 13.04  , 12.54  , 11.44  , 10.86  , 10.219999  , 8.86  , 8.08  , 6.26  , 6.26  , 6.26  , 3.62  , 8.86  , 7.24  , 3.62  , 0.0  , 7.24  , 12.54  , 3.62  , 12.0  , 8.86  , 11.44  , 8.08  , 8.08  , 7.24  , 5.1  , 3.62  , 0.0  , 0.0  , 0.0  , 0.0  , 3.62  , 5.1  , 7.24  , 7.24  , 8.86  , 8.86  , 10.219999  , 9.559999  , 9.559999  , 8.86  , 8.86  , 8.86  , 8.86  , 9.559999  , 9.559999  , 8.86  , 8.86  , 8.08  , 8.86  , 8.08  , 7.24  , 7.24  
, 6.26  , 6.26  , 6.26  , 5.1  , 3.62  , 3.62  , 0.0  , 0.0  , 0.0 );
                        kernels[18] = compute_kernel(x,   23.18  , 24.0  , 25.08  , 24.539999  , 25.08  , 23.74  , 7.24  , 7.24  , 8.08  , 16.58  , 51.959999  , 40.779999  , 26.34  , 18.1  , 18.1  , 17.359999  , 16.18  , 12.54  , 6.26  , 3.62  , 0.0  , 0.0  , 6.26  
, 8.86  , 10.219999  , 15.78  , 27.559999  , 21.4  , 8.08  , 7.24  , 11.44  , 6.26  , 11.44  , 8.86  , 6.26  , 5.1  , 3.62  , 0.0  , 
0.0  , 0.0  , 0.0  , 0.0  , 0.0  , 0.0  , 0.0  , 0.0  , 0.0  , 0.0  , 0.0  , 0.0  , 0.0  , 0.0  , 0.0  , 0.0  , 0.0  , 0.0  , 3.62  , 3.62  , 6.26  , 7.24  , 8.86  , 9.559999  , 10.86  , 12.0 );
                        kernels[19] = compute_kernel(x,   22.299999  , 24.0  , 23.18  , 24.82  , 26.099998  , 24.0  , 14.92  , 10.219999  , 3.62  , 8.08  , 13.54  , 31.559999  , 24.0  , 20.779999  , 22.6  , 24.82  , 19.139999  , 12.54  , 9.559999  , 10.219999  , 10.86  , 12.54  , 8.86  , 9.559999  , 28.5  , 17.359999  , 14.48  , 5.1  , 9.559999  , 6.26  , 7.24  , 7.24  , 3.62  , 10.219999  , 8.86  , 8.08  , 6.26  , 5.1  , 3.62  , 0.0  , 0.0  , 0.0  , 0.0  , 3.62  , 0.0  , 0.0  , 0.0  , 3.62  , 6.26  , 6.26  , 8.86  , 9.559999 
 , 10.219999  , 10.86  , 13.04  , 13.04  , 12.54  , 10.219999  , 8.08  , 6.26  , 6.26  , 6.26  , 8.08  , 6.26 );
                        kernels[20] = compute_kernel(x,   53.199997  , 28.039999  , 10.219999  , 20.139999  , 24.82  , 24.539999  , 24.0  , 21.4  , 18.799999  , 14.48  , 11.44  , 9.559999  , 10.219999  , 10.219999  , 8.86  , 11.44  , 11.44  , 13.54  , 13.04  , 17.719999  , 12.54  , 5.1  , 3.62  , 7.24  , 8.08  , 12.54  , 13.04  , 12.0  , 12.0  , 14.48  , 12.54  , 9.559999  , 7.24  , 5.1  , 3.62  
, 3.62  , 3.62  , 5.1  , 5.1  , 5.1  , 0.0  , 0.0  , 0.0  , 0.0  , 0.0  , 3.62  , 0.0  , 0.0  , 3.62  , 6.26  , 9.559999  , 5.1  , 6.26  , 10.86  , 8.08  , 8.08  , 7.24  , 5.1  , 5.1  , 6.26  , 7.24  , 7.24  , 7.24  , 0.0 );
                        kernels[21] = compute_kernel(x,   19.82  , 14.48  , 9.559999  , 5.1  , 0.0  , 0.0  , 0.0  , 0.0  , 0.0  , 3.62  , 5.1  , 7.24  , 8.08  , 8.08  , 6.26  , 5.1  , 3.62  , 3.62  , 3.62  , 3.62  , 5.1  , 5.1  , 6.26  , 6.26  , 6.26  , 6.26  , 6.26  , 7.24  , 8.08  , 8.08  , 8.86  , 8.86  , 8.86  , 9.559999  , 9.559999  , 8.86  , 8.86  , 8.86  , 8.08  , 8.08  , 7.24  , 6.26  , 6.26  , 5.1  , 5.1  , 3.62  , 3.62  , 3.62  , 0.0  , 0.0  , 0.0  , 0.0  , 0.0  , 0.0  , 3.62  , 8.86  , 3.62  , 3.62  , 12.54  , 36.200001  , 22.879999  , 18.1  , 16.98  , 18.1 );
                        kernels[22] = compute_kernel(x,   39.48  , 20.459999  , 20.459999  , 19.139999  , 22.879999  , 22.299999  , 21.719999  , 19.139999  , 14.48  , 10.86  , 8.86  , 6.26  , 5.1  , 3.62  , 5.1  , 7.24  , 7.24  , 8.86  , 8.86  , 7.24  , 3.62  , 0.0 
 , 0.0  , 0.0  , 0.0  , 0.0  , 3.62  , 6.26  , 6.26  , 6.26  , 5.1  , 3.62  , 0.0  , 0.0  , 0.0  , 6.26  , 3.62  , 3.62  , 0.0  , 0.0  , 0.0  , 0.0  , 0.0  , 3.62  , 5.1  , 0.0  , 0.0  , 3.62  , 5.1  , 5.1  , 5.1  , 5.1  , 6.26  , 8.08  , 6.26  , 5.1  , 0.0  , 0.0  
, 0.0  , 0.0  , 0.0  , 0.0  , 0.0  , 0.0 );
                        kernels[23] = compute_kernel(x,   14.02  , 11.44  , 13.54  , 17.719999  , 16.18  , 15.339999  , 15.339999  , 
14.02  , 12.54  , 10.219999  , 7.24  , 5.1  , 5.1  , 6.26  , 8.08  , 10.86  , 14.48  , 15.78  , 16.98  , 15.78  , 14.92  , 14.92  , 12.54  , 8.86  , 7.24  , 6.26  , 3.62  , 3.62  , 3.62  , 3.62  , 5.1  , 6.26  , 6.26  , 8.08  , 6.26  , 10.219999  , 9.559999  , 15.339999  , 10.219999  , 6.26  , 7.24  , 3.62  , 3.62  , 6.26  , 6.26  , 3.62  , 0.0  , 6.26  , 3.62  , 8.86  , 8.08  , 10.219999  , 8.86  , 8.86  , 5.1  , 7.24  , 3.62  , 5.1  , 3.62  , 0.0  , 3.62  , 5.1  , 3.62  , 3.62 );
                        kernels[24] = compute_kernel(x,   21.4  , 14.48  , 19.139999  , 13.54  , 15.339999  , 14.48  , 14.92  , 17.719999  , 17.359999  , 17.719999  , 15.78  , 16.98  , 18.799999  , 14.92  , 14.92  , 12.54  , 10.219999  , 7.24  , 9.559999  , 5.1  , 5.1  , 9.559999  , 13.54  , 6.26  , 9.559999  , 8.86  , 3.62  , 10.219999  , 6.26  , 12.0  , 9.559999  , 5.1  , 6.26  , 0.0  , 5.1  , 
5.1  , 7.24  , 7.24  , 5.1  , 6.26  , 5.1  , 3.62  , 5.1  , 7.24  , 6.26  , 3.62  , 3.62  , 5.1  , 3.62  , 3.62  , 6.26  , 6.26  , 6.26  , 8.08  , 8.86  , 8.86  , 8.08  , 7.24  , 7.24  , 7.24  , 7.24  , 6.26  , 6.26  , 5.1 );
                        kernels[25] = compute_kernel(x,   76.379997  , 89.919998  , 72.400002  , 26.099998  , 22.879999  , 19.48  , 18.459999  , 20.139999  , 16.98  , 15.339999  , 12.0  , 8.08  , 10.219999  , 8.86  , 5.1  , 6.26  , 5.1  , 5.1  , 8.86  , 11.44  , 12.0  , 13.54  , 10.86  , 13.54  , 10.219999  , 7.24  , 3.62  , 0.0  , 0.0  , 0.0  , 3.62  , 3.62  , 5.1  , 5.1  , 5.1  , 3.62  , 0.0  , 3.62  , 0.0  , 0.0  , 0.0  , 0.0  , 0.0  , 0.0  , 0.0  , 3.62  , 6.26  , 6.26  , 7.24  , 8.08  , 8.08  , 8.86  , 9.559999  , 10.86  
, 10.86  , 10.86  , 10.86  , 11.44  , 11.44  , 11.44  , 11.44  , 11.44  , 10.86  , 10.219999 );
                        kernels[26] = compute_kernel(x,   18.799999  , 21.4  , 19.82  , 19.139999  , 16.18  , 14.02  , 10.86  , 12.0 
 , 10.219999  , 10.219999  , 8.08  , 8.08  , 8.86  , 12.0  , 16.58  , 19.48  , 24.0  , 20.459999  , 19.48  , 14.92  , 9.559999  , 3.62  , 0.0  , 0.0  , 0.0  , 0.0  , 3.62  , 6.26  , 8.08  , 8.08  , 7.24  , 5.1  , 0.0  , 0.0  , 0.0  , 0.0  , 3.62  , 3.62  , 5.1  , 5.1  , 3.62  , 0.0  , 0.0  , 0.0  , 0.0  , 3.62  , 5.1  , 7.24  , 7.24  , 9.559999  , 8.86  , 9.559999  , 8.08  , 7.24  , 6.26  , 5.1  
, 5.1  , 5.1  , 0.0  , 0.0  , 0.0  , 3.62  , 3.62  , 3.62 );
                        kernels[27] = compute_kernel(x,   28.5  , 25.08  , 18.1  , 15.339999  , 13.04  , 10.219999  , 8.86  , 7.24  , 7.24  , 8.86  , 10.219999  , 9.559999  , 10.86  , 10.86  , 10.86  , 10.86  , 10.86  , 10.219999  , 9.559999  , 10.219999  , 0.0  , 3.62  , 0.0  , 0.0  , 8.86  , 8.86  , 5.1  , 0.0  , 0.0  , 0.0  , 3.62  , 6.26  , 9.559999  , 11.44  , 13.04  , 14.48  , 15.339999  , 
16.58  , 16.18  , 16.98  , 16.18  , 15.78  , 15.339999  , 14.92  , 14.02  , 13.54  , 12.54  , 12.0  , 11.44  , 10.86  , 10.219999  , 
9.559999  , 8.86  , 8.08  , 7.24  , 7.24  , 6.26  , 6.26  , 5.1  , 5.1  , 5.1  , 3.62  , 3.62  , 3.62 );
                        kernels[28] = compute_kernel(x,   22.02  , 21.719999  , 19.139999  , 15.78  , 14.92  , 18.459999  , 19.82  , 
22.02  , 20.779999  , 20.139999  , 20.459999  , 19.139999  , 16.58  , 13.04  , 10.86  , 5.1  , 5.1  , 5.1  , 0.0  , 3.62  , 3.62  , 5.1  , 5.1  , 3.62  , 0.0  , 0.0  , 0.0  , 0.0  , 0.0  , 0.0  , 0.0  , 0.0  , 3.62  , 6.26  , 6.26  , 6.26  , 5.1  , 3.62  , 3.62  , 3.62  , 3.62  , 3.62  , 5.1  , 5.1  , 6.26  , 7.24  , 8.08  , 8.86  , 9.559999  , 9.559999  , 10.219999  , 10.86  , 10.86  , 10.86  , 
10.86  , 10.86  , 10.219999  , 10.219999  , 10.219999  , 9.559999  , 8.86  , 8.86  , 8.08  , 7.24 );
                        kernels[29] = compute_kernel(x,   31.959999  , 43.739998  , 35.459999  , 39.139999  , 54.059998  , 57.34  , 36.559998  , 23.74  , 26.099998  , 28.26  , 31.139999  , 36.919998  , 34.34  , 30.059999  , 22.879999  , 13.54  , 10.219999  , 7.24  , 7.24  , 8.86  , 10.86  , 14.02  , 12.0  , 10.86  , 8.86  , 7.24  , 5.1  , 5.1  , 5.1  , 0.0  , 0.0  , 0.0  , 3.62  , 5.1  , 3.62  , 
0.0  , 0.0  , 0.0  , 0.0  , 0.0  , 0.0  , 0.0  , 0.0  , 0.0  , 0.0  , 0.0  , 0.0  , 3.62  , 5.1  , 6.26  , 7.24  , 8.08  , 8.86  , 8.86  , 8.86  , 8.86  , 8.08  , 8.08  , 8.08  , 8.08  , 8.08  , 8.08  , 8.08  , 7.24 );
                        kernels[30] = compute_kernel(x,   34.139999  , 23.74  , 24.539999  , 25.599998  , 30.5  , 28.26  , 26.099998 
 , 24.539999  , 23.74  , 24.539999  , 20.779999  , 16.58  , 13.54  , 10.86  , 6.26  , 3.62  , 0.0  , 3.62  , 8.86  , 11.44  , 14.48  
, 13.54  , 9.559999  , 8.86  , 7.24  , 0.0  , 3.62  , 3.62  , 3.62  , 3.62  , 0.0  , 0.0  , 3.62  , 0.0  , 0.0  , 0.0  , 0.0  , 0.0  
, 0.0  , 0.0  , 0.0  , 0.0  , 3.62  , 3.62  , 6.26  , 8.08  , 7.24  , 7.24  , 6.26  , 5.1  , 3.62  , 3.62  , 0.0  , 0.0  , 3.62  , 6.26  , 8.08  , 7.24  , 5.1  , 6.26  , 5.1  , 5.1  , 6.26  , 6.26 );
                        kernels[31] = compute_kernel(x,   24.279999  , 23.74  , 18.799999  , 16.18  , 14.48  , 11.44  , 10.219999  , 
7.24  , 7.24  , 5.1  , 5.1  , 3.62  , 3.62  , 3.62  , 0.0  , 0.0  , 0.0  , 0.0  , 0.0  , 0.0  , 0.0  , 0.0  , 0.0  , 0.0  , 0.0  , 0.0  , 0.0  , 0.0  , 0.0  , 0.0  , 0.0  , 0.0  , 0.0  , 0.0  , 0.0  , 0.0  , 0.0  , 0.0  , 0.0  , 0.0  , 0.0  , 0.0  , 0.0  , 0.0  , 0.0  , 0.0  , 0.0  , 0.0  , 0.0  , 0.0  , 0.0  , 0.0  , 0.0  , 0.0  , 0.0  , 0.0  , 0.0  , 0.0  , 0.0  , 0.0  , 0.0  , 0.0  , 0.0  , 0.0 );
                        kernels[32] = compute_kernel(x,   19.82  , 27.799999  , 21.4  , 14.48  , 19.82  , 18.799999  , 19.82  , 20.779999  , 21.719999  , 22.879999  , 22.879999  , 24.0  , 23.18  , 20.779999  , 22.6  , 20.779999  , 16.58  , 22.6  , 22.6  , 26.84  , 21.719999  , 19.82  , 15.339999  , 10.219999  , 9.559999  , 8.08  , 8.08  , 5.1  , 0.0  , 0.0  , 0.0  , 3.62  , 3.62  , 0.0  , 3.62  , 0.0  , 0.0  , 0.0  , 3.62  , 0.0  , 0.0  , 3.62  , 3.62  , 0.0  , 0.0  , 3.62  , 0.0  , 0.0  , 0.0  , 3.62  , 0.0  , 3.62  , 3.62  , 0.0  , 0.0  , 0.0  , 0.0  , 0.0  , 0.0  , 0.0  , 0.0  , 0.0  , 0.0  , 0.0 );
                        kernels[33] = compute_kernel(x,   51.059998  , 26.34  , 25.34  , 23.459999  , 28.26  , 28.5  , 27.799999  , 22.299999  , 17.359999  , 14.92  , 13.04  , 9.559999  , 8.08  , 5.1  , 5.1  , 3.62  , 5.1  , 6.26  , 6.26  , 7.24  , 7.24  , 8.08  , 8.08  , 8.08  , 6.26  , 3.62  , 0.0  , 0.0  , 0.0  , 0.0  , 0.0  , 0.0  , 3.62  , 3.62  , 3.62  , 3.62  , 3.62  , 3.62  , 3.62  , 3.62  , 3.62  , 3.62  , 5.1  , 5.1  , 5.1  , 5.1  , 6.26  , 6.26  , 6.26  , 6.26  , 6.26  , 6.26  , 6.26  , 6.26  , 6.26  , 6.26  , 5.1  
, 5.1  , 5.1  , 5.1  , 5.1  , 5.1  , 5.1  , 3.62 );
                        kernels[34] = compute_kernel(x,   50.799999  , 31.76  , 31.959999  , 29.84  , 30.699999  , 27.32  , 28.959999  , 24.539999  , 18.1  , 14.48  , 10.219999  , 8.86  , 6.26  , 5.1  , 3.62  , 3.62  , 3.62  , 5.1  , 6.26  , 8.08  , 6.26  , 9.559999  , 6.26  , 5.1  , 7.24  , 8.86  , 8.86  , 7.24  , 6.26  , 3.62  , 0.0  , 0.0  , 0.0  , 0.0  , 0.0  , 0.0  , 0.0  , 0.0  , 3.62  , 3.62  , 3.62  , 3.62  , 3.62  , 3.62  , 3.62  , 5.1  , 5.1  , 3.62  , 5.1  , 5.1  , 5.1  , 3.62  , 3.62  , 3.62  , 3.62  , 3.62  , 3.62  , 3.62  , 3.62  , 3.62  , 0.0  , 0.0  , 0.0  , 0.0 );
                        kernels[35] = compute_kernel(x,   17.719999  , 18.459999  , 27.08  , 28.039999  , 33.18  , 40.299999  , 41.739998  , 33.959999  , 26.34  , 25.599998  , 22.02  , 17.359999  , 14.48  , 13.54  , 10.86  , 8.08  , 8.08  , 6.26  , 6.26  , 5.1  , 3.62  , 3.62  , 0.0  , 0.0  , 0.0  , 0.0  , 0.0  , 0.0  , 0.0  , 0.0  , 0.0  , 0.0  , 0.0  , 0.0  , 0.0  , 0.0  , 0.0  , 3.62  , 5.1  , 7.24  , 8.86  , 9.559999  , 9.559999  , 10.219999  , 10.86  , 10.86  , 8.08  , 9.559999  , 8.86  , 10.219999  , 7.24  , 3.62  , 3.62  , 3.62  , 0.0  , 5.1  , 3.62  , 3.62  , 0.0  , 5.1  , 5.1  , 5.1  , 5.1  , 5.1 );
                        kernels[36] = compute_kernel(x,   28.039999  , 19.82  , 22.6  , 24.0  , 25.08  , 25.599998  , 26.599998  , 26.099998  , 23.74  , 21.1  , 16.58  , 14.48  , 11.44  , 8.86  , 6.26  , 5.1  , 3.62  , 3.62  , 6.26  , 5.1  , 3.62  , 5.1  , 3.62  , 0.0  , 0.0  , 0.0  , 0.0  , 0.0  , 0.0  , 0.0  , 0.0  , 0.0  , 0.0  , 0.0  , 0.0  , 0.0  , 0.0  , 0.0  , 0.0  , 0.0  , 0.0  , 0.0  , 0.0  , 0.0  , 0.0  , 0.0  , 0.0  , 0.0  , 0.0  , 0.0  , 0.0  , 0.0  , 0.0  , 0.0  , 0.0  , 0.0  , 0.0  , 0.0  , 0.0  , 0.0  , 0.0  , 0.0  , 0.0  , 0.0 );
                        kernels[37] = compute_kernel(x,   22.299999  , 21.4  , 18.799999  , 17.359999  , 15.339999  , 13.54  , 10.86 
 , 8.08  , 7.24  , 7.24  , 7.24  , 9.559999  , 13.54  , 16.98  , 14.02  , 12.0  , 12.54  , 10.219999  , 8.08  , 7.24  , 8.86  , 8.08 
 , 7.24  , 5.1  , 3.62  , 3.62  , 5.1  , 3.62  , 3.62  , 0.0  , 3.62  , 0.0  , 3.62  , 0.0  , 0.0  , 0.0  , 0.0  , 0.0  , 0.0  , 0.0 
 , 0.0  , 0.0  , 0.0  , 0.0  , 0.0  , 0.0  , 0.0  , 0.0  , 0.0  , 3.62  , 3.62  , 3.62  , 0.0  , 3.62  , 3.62  , 3.62  , 3.62  , 3.62  , 3.62  , 3.62  , 3.62  , 0.0  , 0.0  , 0.0 );
                        kernels[38] = compute_kernel(x,   15.78  , 11.44  , 12.0  , 13.54  , 12.54  , 13.54  , 11.44  , 7.24  , 3.62 
 , 0.0  , 0.0  , 0.0  , 0.0  , 0.0  , 3.62  , 3.62  , 3.62  , 3.62  , 5.1  , 5.1  , 6.26  , 6.26  , 5.1  , 3.62  , 5.1  , 6.26  , 7.24  , 7.24  , 8.08  , 8.08  , 8.86  , 8.86  , 8.86  , 8.86  , 8.86  , 8.86  , 8.08  , 8.08  , 7.24  , 7.24  , 6.26  , 6.26  , 6.26  , 
5.1  , 5.1  , 5.1  , 3.62  , 3.62  , 3.62  , 3.62  , 3.62  , 3.62  , 0.0  , 0.0  , 0.0  , 0.0  , 0.0  , 0.0  , 0.0  , 0.0  , 0.0  , 0.0  , 0.0  , 0.0 );
                        kernels[39] = compute_kernel(x,   31.559999  , 32.380001  , 18.799999  , 22.299999  , 17.719999  , 18.1  , 14.92  , 14.02  , 13.04  , 10.219999  , 7.24  , 5.1  , 3.62  , 5.1  , 6.26  , 5.1  , 5.1  , 3.62  , 0.0  , 0.0  , 3.62  , 3.62  , 3.62 
 , 0.0  , 0.0  , 0.0  , 0.0  , 0.0  , 0.0  , 0.0  , 0.0  , 0.0  , 0.0  , 0.0  , 0.0  , 0.0  , 0.0  , 0.0  , 0.0  , 0.0  , 0.0  , 0.0 
 , 3.62  , 5.1  , 5.1  , 5.1  , 3.62  , 5.1  , 6.26  , 6.26  , 5.1  , 5.1  , 3.62  , 5.1  , 5.1  , 6.26  , 6.26  , 7.24  , 7.24  , 8.08  , 8.08  , 8.86  , 8.86  , 8.86 );
                        kernels[40] = compute_kernel(x,   20.139999  , 14.02  , 21.4  , 22.6  , 29.179998  , 40.779999  , 57.119999  
, 44.18  , 29.619999  , 31.76  , 26.84  , 19.82  , 16.18  , 10.219999  , 6.26  , 3.62  , 10.219999  , 10.219999  , 12.0  , 19.139999 
 , 14.02  , 12.54  , 10.86  , 8.08  , 7.24  , 7.24  , 10.219999  , 12.54  , 11.44  , 10.86  , 10.86  , 10.86  , 11.44  , 8.86  , 9.559999  , 10.86  , 10.86  , 12.0  , 10.86  , 8.08  , 7.24  , 6.26  , 6.26  , 5.1  , 3.62  , 3.62  , 0.0  , 0.0  , 0.0  , 0.0  , 0.0  , 
3.62  , 0.0  , 3.62  , 0.0  , 0.0  , 5.1  , 3.62  , 3.62  , 3.62  , 5.1  , 3.62  , 0.0  , 3.62 );
                        kernels[41] = compute_kernel(x,   20.139999  , 26.599998  , 28.039999  , 26.84  , 25.84  , 22.02  , 18.459999  , 15.339999  , 15.339999  , 13.54  , 10.86  , 8.08  , 8.08  , 6.26  , 3.62  , 5.1  , 0.0  , 9.559999  , 25.599998  , 8.08  , 0.0  , 3.62  , 6.26  , 9.559999  , 10.86  , 9.559999  , 7.24  , 3.62  , 0.0  , 0.0  , 0.0  , 0.0  , 0.0  , 0.0  , 3.62  , 3.62  , 3.62  , 3.62  , 5.1  , 5.1  , 5.1  , 5.1  , 5.1  , 5.1  , 5.1  , 5.1  , 5.1  , 5.1  , 5.1  , 5.1  , 3.62  , 3.62  , 3.62  , 3.62  , 3.62  , 3.62  , 3.62  , 0.0  , 3.62  , 0.0  , 0.0  , 0.0  , 0.0  , 0.0 );
                        decisions[0] = 1.669716995298
                        + kernels[0] * 2.67099e-07
                        + kernels[2] * 2.0511686e-05
                        + kernels[3] * 2.5814968e-05
                        + kernels[4] * 7.016142e-06
                        + kernels[5] * 2.5321366e-05
                        + kernels[6] * 2.709376e-06
                        + kernels[7] * 1.6190728e-05
                        + kernels[8] * 1.1094661e-05
                        + kernels[9] * 9.085509e-06
                        + kernels[10] * 6.170025e-06
                        + kernels[12] * 4.952124e-06
                        + kernels[13] * 1.7246019e-05
                        + kernels[14] * 5.71102e-07
                        + kernels[15] * 2.696154e-06
                        + kernels[16] * 4.94863e-06
                        + kernels[17] * 1.4244099e-05
                        + kernels[19] * 3.560683e-06
                        + kernels[20] * -1.2704985e-05
                        + kernels[21] * -1.4340078e-05
                        + kernels[22] * -2.0542194e-05
                        + kernels[23] * -4.398684e-06
                        + kernels[24] * -4.5044244e-05
                        + kernels[26] * -1.3058191e-05
                        + kernels[27] * -3.2176856e-05
                        + kernels[28] * -2.2181717e-05
                        + kernels[29] * -1.233427e-06
                        + kernels[30] * -6.719995e-06
                        ;
                        decisions[1] = 0.839649843417
                        + kernels[1] * 2.3161002e-05
                        + kernels[3] * 7.158337e-06
                        + kernels[4] * 1.6689883e-05
                        + kernels[5] * 1.7187281e-05
                        + kernels[6] * 4.135593e-06
                        + kernels[7] * 5.432065e-06
                        + kernels[11] * 0.000119223775
                        + kernels[13] * 1.3457402e-05
                        + kernels[15] * 3.2048709e-05
                        + kernels[18] * 4.465e-09
                        + kernels[31] * -4.830755e-05
                        + kernels[32] * -4.05786e-07
                        + kernels[35] * -6.361726e-06
                        + kernels[37] * -6.7677841e-05
                        + kernels[38] * -9.7093155e-05
                        + kernels[39] * -1.8652455e-05
                        ;
                        decisions[2] = -1.261227974056
                        + kernels[21] * 7.306556e-06
                        + kernels[22] * 5.0526282e-05
                        + kernels[23] * 2.0272641e-05
                        + kernels[25] * 2.707753e-06
                        + kernels[27] * 6.359463e-06
                        + kernels[28] * 4.381264e-06
                        + kernels[29] * 1.856351e-06
                        + kernels[30] * 3.2730295e-05
                        + kernels[32] * -7.386035e-06
                        + kernels[33] * -3.8558459e-05
                        + kernels[34] * -1.01363e-06
                        + kernels[35] * -2.375205e-06
                        + kernels[36] * -1.35716e-06
                        + kernels[37] * -1.8427857e-05
                        + kernels[38] * -1.5732111e-05
                        + kernels[39] * -2.4747911e-05
                        + kernels[40] * -7.011096e-06
                        + kernels[41] * -9.531141e-06
                        ;
                        votes[decisions[0] > 0 ? 0 : 1] += 1;
                        votes[decisions[1] > 0 ? 0 : 2] += 1;
                        votes[decisions[2] > 0 ? 1 : 2] += 1;
                        int val = votes[0];
                        int idx = 0;

                        for (int i = 1; i < 3; i++) {
                            if (votes[i] > val) {
                                val = votes[i];
                                idx = i;
                            }
                        }

                        return idx;
                    }

                    /**
                    * Predict readable class name
                    */
                    const char* predictLabel(float *x) {
                        return idxToLabel(predict(x));
                    }

                    /**
                    * Convert class idx to readable name
                    */
                    const char* idxToLabel(uint8_t classIdx) {
                        switch (classIdx) {
                            case 0:
                            return "hey-bit";
                            case 1:
                            return "one";
                            case 2:
                            return "two";
                            default:
                            return "Houston we have a problem";
                        }
                    }

                protected:
                    /**
                    * Compute kernel between feature vector and support vector.
                    * Kernel type: poly
                    */
                    float compute_kernel(float *x, ...) {
                        va_list w;
                        va_start(w, 64);
                        float kernel = 0.0;

                        for (uint16_t i = 0; i < 64; i++) {
                            kernel += x[i] * va_arg(w, double);
                        }

                        return pow((0.1 * kernel) + 0.0, 2);
                    }
                };
            }
        }
    }
