#pragma once
#include <cstdarg>
namespace Eloquent {
    namespace ML {
        namespace Port {
            class SVM {
                public:
                    /**
                    * Predict class for features vector
                    */
                    int predict(float *x) {
                        float kernels[15] = { 0 };
                        float decisions[1] = { 0 };
                        int votes[2] = { 0 };
                        kernels[0] = compute_kernel(x,   21.1  , 22.02  , 19.48  , 18.459999  , 19.139999  , 17.359999  , 16.18  , 14.92  , 13.54  , 9.559999  , 5.1  , 3.62  , 3.62  , 3.62  , 3.62  , 3.62  , 3.62  , 3.62  , 5.1  , 5.1  , 5.1  , 5.1  , 6.26  , 6.26  , 6.26  , 6.26  , 7.24  , 7.24  , 7.24  , 6.26  , 6.26  , 6.26  , 6.26  , 6.26  , 6.26  , 6.26  , 5.1  , 5.1  , 5.1  , 5.1  , 5.1  , 3.62  , 3.62  , 3.62  , 3.62  , 3.62  , 3.62  , 3.62  , 0.0  , 0.0  , 0.0  , 0.0  , 0.0  , 0.0  , 0.0  , 0.0  , 0.0  , 0.0  , 0.0  , 0.0  , 0.0  , 0.0  , 0.0  , 0.0  , 0.0  , 0.0  , 0.0  , 0.0  , 0.0  , 0.0  , 0.0  , 0.0  , 0.0  , 0.0  , 0.0  , 0.0  , 0.0  , 0.0  , 0.0  , 0.0  , 0.0  , 0.0  , 0.0  , 0.0  , 0.0  , 0.0  , 0.0  , 0.0  , 0.0  , 0.0  , 0.0  , 0.0  , 0.0  , 0.0  , 0.0  , 0.0  , 0.0  , 0.0  , 0.0  , 0.0  , 0.0  , 0.0  , 0.0  , 0.0  , 0.0  , 0.0  , 0.0  , 0.0  , 0.0  , 0.0  , 0.0  , 0.0  , 0.0  , 0.0  , 0.0  , 0.0  , 0.0  , 0.0  , 0.0  , 0.0  , 0.0  , 0.0  , 0.0  , 0.0  , 0.0  , 0.0  , 0.0  , 0.0 );
                        kernels[1] = compute_kernel(x,   19.139999  , 20.139999  , 18.459999  , 17.719999  , 18.1  , 16.18  , 14.92  , 14.02  , 13.04  , 8.86  , 5.1  , 3.62  , 0.0  , 0.0  , 0.0  , 0.0  , 0.0  , 3.62  , 3.62  , 3.62  , 3.62  , 5.1  , 5.1  , 5.1  , 5.1  , 5.1  , 5.1  , 6.26  , 6.26  , 6.26  , 5.1  , 5.1  , 5.1  , 5.1  , 5.1  , 5.1  , 5.1  , 5.1  , 5.1  , 3.62  , 3.62  , 3.62  , 3.62  , 3.62  , 3.62  , 3.62  , 3.62  , 0.0  , 0.0  , 0.0  , 0.0  , 0.0  , 0.0  , 0.0  , 0.0  , 0.0  , 0.0  , 0.0  , 0.0  , 0.0  , 0.0  , 0.0  , 0.0  , 0.0  , 0.0  , 0.0  , 0.0  , 0.0  , 0.0  , 0.0  , 0.0  , 0.0  , 0.0  , 0.0  , 0.0  , 0.0  , 0.0  , 0.0  , 0.0  , 0.0  , 0.0  , 0.0  , 0.0  , 0.0  , 0.0  , 0.0  , 0.0  , 0.0  , 0.0  , 0.0  , 0.0  , 0.0  , 0.0  , 0.0  , 0.0  , 0.0  , 0.0  , 0.0  , 0.0  , 0.0  , 0.0  , 0.0  , 0.0  , 0.0  , 0.0  , 0.0  , 0.0  , 0.0  , 0.0  , 0.0  , 0.0  , 0.0  , 0.0  , 0.0  , 0.0  , 0.0  , 0.0  , 0.0  , 0.0  , 0.0  , 0.0  , 0.0  , 0.0  , 0.0  , 0.0  , 0.0  , 0.0  , 0.0 );
                        kernels[2] = compute_kernel(x,   25.84  , 20.459999  , 12.54  , 8.86  , 6.26  , 5.1  , 5.1  , 6.26  , 6.26  , 8.08  , 8.86  , 10.219999  , 10.86  , 11.44  , 12.0  , 12.54  , 13.54  , 13.54  , 14.02  , 14.48  , 14.48  , 14.92  , 14.92  , 14.92  , 14.92  , 14.48  , 14.48  , 14.02  , 14.02  , 13.54  , 13.04  , 13.04  , 12.54  , 12.0  , 11.44  , 10.86  , 10.219999  , 10.219999  , 9.559999  , 8.86  , 8.08  , 8.08  , 7.24  , 7.24  , 6.26  , 6.26  , 5.1  , 5.1  , 5.1  , 3.62  , 3.62  , 3.62  , 0.0  , 0.0  , 0.0  , 0.0  , 0.0  , 0.0  , 0.0  , 0.0  , 0.0  , 0.0  , 0.0  , 0.0  , 0.0  , 0.0  , 0.0  , 0.0  , 0.0  , 0.0  , 0.0  , 0.0  , 0.0  , 0.0  , 0.0  , 0.0  , 0.0  , 0.0  , 0.0  , 0.0  , 0.0  , 0.0  , 0.0  , 0.0  , 0.0  , 0.0  , 0.0  , 0.0  , 0.0  , 0.0  , 0.0  , 0.0  , 0.0  , 0.0  , 0.0  , 0.0  , 0.0  , 0.0  , 0.0  , 0.0  , 0.0  , 0.0  , 0.0  , 0.0  , 0.0  , 0.0  , 0.0  , 0.0  , 0.0  , 0.0  , 0.0  , 0.0  , 0.0  , 0.0  , 0.0  , 0.0  , 0.0  , 0.0  , 0.0  , 0.0  , 0.0  , 0.0  , 0.0  , 0.0  , 0.0  , 0.0  , 0.0  , 0.0 );
                        kernels[3] = compute_kernel(x,   36.02  , 35.639999  , 36.200001  , 31.34  , 29.179998  , 27.32  , 24.539999  , 15.339999  , 9.559999  , 7.24  , 5.1  , 6.26  , 7.24  , 8.08  , 8.86  , 10.219999  , 11.44  , 12.0  , 13.04  , 14.02  , 14.48  , 15.339999  , 15.78  , 16.18  , 16.58  , 16.98  , 16.98  , 16.98  , 16.98  , 16.98  , 16.58  , 16.58  , 16.18  , 15.78  , 14.92  , 14.48  , 14.02  , 13.54  , 13.04  , 12.0  , 11.44  , 10.86  , 10.219999  , 9.559999  , 8.86  , 8.86  , 8.08  , 8.08  , 7.24  , 7.24  , 6.26  , 6.26  , 5.1  , 5.1  , 5.1  , 3.62  , 3.62  , 3.62  , 3.62  , 3.62  , 0.0  , 0.0  , 0.0  , 0.0  , 0.0  , 0.0  , 0.0  , 0.0  , 0.0  , 0.0  , 0.0  , 0.0  , 0.0  , 0.0  , 0.0  , 0.0  , 0.0  , 0.0  , 0.0  , 0.0  , 0.0  , 0.0  , 0.0  , 0.0  , 0.0  , 0.0  , 0.0  , 0.0  , 0.0  , 0.0  , 0.0  , 0.0  , 0.0  , 0.0  , 0.0  , 0.0  , 0.0  , 0.0  , 0.0  , 0.0  , 0.0  , 0.0  , 0.0  , 0.0  , 0.0  , 0.0  , 0.0  , 0.0  , 0.0  , 0.0  , 0.0  , 0.0  , 0.0  , 0.0  , 0.0  , 0.0  , 0.0  , 0.0  , 0.0  , 0.0  , 0.0  , 0.0  , 0.0  , 0.0  , 0.0  , 0.0  , 0.0  , 0.0 );
                        kernels[4] = compute_kernel(x,   34.719997  , 36.919998  , 31.959999  , 29.4  , 27.799999  , 25.08  , 16.98  , 10.86  , 8.86  , 6.26  , 6.26  , 6.26  , 5.1  , 6.26  , 7.24  , 8.08  , 8.86  , 10.219999  , 10.86  , 12.0  , 12.54  , 13.04  , 13.54  , 14.02  , 14.48  , 14.92  , 15.339999  , 15.339999  , 15.339999  , 15.339999  , 15.339999  , 15.339999  , 14.92  , 14.92  , 14.48  , 14.02  , 13.54  , 13.04  , 13.04  , 12.54  , 12.0  , 11.44  , 10.86  , 10.219999  , 9.559999  , 9.559999  , 8.86  , 8.08  , 8.08  , 7.24  , 7.24  , 6.26  , 6.26  , 6.26  , 5.1  , 5.1  , 5.1  , 3.62  , 3.62  , 3.62  , 3.62  , 3.62  , 3.62  , 0.0  , 0.0  , 0.0  , 0.0  , 0.0  , 0.0  , 0.0  , 0.0  , 0.0  , 0.0  , 0.0  , 0.0  , 0.0  , 0.0  , 0.0  , 0.0  , 0.0  , 0.0  , 0.0  , 0.0  , 0.0  , 0.0  , 0.0  , 0.0  , 0.0  , 0.0  , 0.0  , 0.0  , 0.0  , 0.0  , 0.0  , 0.0  , 0.0  , 0.0  , 0.0  , 0.0  , 0.0  , 0.0  , 0.0  , 0.0  , 0.0  , 0.0  , 0.0  , 0.0  , 0.0  , 0.0  , 0.0  , 0.0  , 0.0  , 0.0  , 0.0  , 0.0  , 0.0  , 0.0  , 0.0  , 0.0  , 0.0  , 0.0  , 0.0  , 0.0  , 0.0  , 0.0  , 0.0  , 0.0  , 0.0 );
                        kernels[5] = compute_kernel(x,   24.279999  , 19.82  , 16.98  , 14.02  , 11.44  , 10.219999  , 8.08  , 5.1  , 3.62  , 0.0  , 0.0  , 3.62  , 3.62  , 5.1  , 5.1  , 6.26  , 8.08  , 8.08  , 8.08  , 8.08  , 8.86  , 8.86  , 8.86  , 9.559999  , 9.559999  , 9.559999  , 8.86  , 8.86  , 8.86  , 8.86  , 8.08  , 8.08  , 8.08  , 7.24  , 7.24  , 7.24  , 6.26  , 6.26  , 5.1  , 5.1  , 5.1  , 5.1  , 3.62  , 3.62  , 3.62  , 3.62  , 3.62  , 3.62  , 0.0  , 0.0  , 0.0  , 0.0  , 0.0  , 0.0  , 0.0  , 0.0  , 0.0  , 0.0  , 0.0  , 0.0  , 0.0  , 0.0  , 0.0  , 0.0  , 0.0  , 0.0  , 0.0  , 0.0  , 0.0  , 0.0  , 0.0  , 0.0  , 0.0  , 0.0  , 0.0  , 0.0  , 0.0  , 0.0  , 0.0  , 0.0  , 0.0  , 0.0  , 0.0  , 0.0  , 0.0  , 0.0  , 0.0  , 0.0  , 0.0  , 0.0  , 0.0  , 0.0  , 0.0  , 0.0  , 0.0  , 0.0  , 0.0  , 0.0  , 0.0  , 0.0  , 0.0  , 0.0  , 0.0  , 0.0  , 0.0  , 0.0  , 0.0  , 0.0  , 0.0  , 0.0  , 0.0  , 0.0  , 0.0  , 0.0  , 0.0  , 0.0  , 0.0  , 0.0  , 0.0  , 0.0  , 0.0  , 0.0  , 0.0  , 0.0  , 0.0  , 0.0  , 0.0  , 0.0 );
                        kernels[6] = compute_kernel(x,   32.18  , 30.92  , 32.579998  , 31.76  , 25.84  , 24.279999  , 22.299999  , 17.719999  , 14.92  , 12.0  , 9.559999  , 7.24  , 6.26  , 5.1  , 0.0  , 0.0  , 0.0  , 0.0  , 3.62  , 3.62  , 5.1  , 5.1  , 6.26  , 7.24  , 7.24  , 7.24  , 7.24  , 7.24  , 7.24  , 7.24  , 7.24  , 7.24  , 6.26  , 6.26  , 6.26  , 6.26  , 6.26  , 5.1  , 5.1  , 5.1  , 5.1  , 3.62  , 3.62  , 3.62  , 3.62  , 3.62  , 3.62  , 3.62  , 0.0  , 0.0  , 0.0  , 0.0  , 0.0  , 0.0  , 0.0  , 0.0  , 0.0  , 0.0  , 0.0  , 0.0  , 0.0  , 0.0  , 0.0  , 0.0  , 0.0  , 0.0  , 0.0  , 0.0  , 0.0  , 0.0  , 0.0  , 0.0  , 0.0  , 0.0  , 0.0  , 0.0  , 0.0  , 0.0  , 0.0  , 0.0  , 0.0  , 0.0  , 0.0  , 0.0  , 0.0  , 0.0  , 0.0  , 0.0  , 0.0  , 0.0  , 0.0  , 0.0  , 0.0  , 0.0  , 0.0  , 0.0  , 0.0  , 0.0  , 0.0  , 0.0  , 0.0  , 0.0  , 0.0  , 0.0  , 0.0  , 0.0  , 0.0  , 0.0  , 0.0  , 0.0  , 0.0  , 0.0  , 0.0  , 0.0  , 0.0  , 0.0  , 0.0  , 0.0  , 0.0  , 0.0  , 0.0  , 0.0  , 0.0  , 0.0  , 0.0  , 0.0  , 0.0  , 0.0 );
                        kernels[7] = compute_kernel(x,   30.699999  , 24.539999  , 21.4  , 18.1  , 14.92  , 12.54  , 10.86  , 8.86  , 6.26  , 3.62  , 3.62  , 0.0  , 0.0  , 3.62  , 3.62  , 5.1  , 6.26  , 7.24  , 8.08  , 8.08  , 8.08  , 8.08  , 8.86  , 8.86  , 8.86  , 8.86  , 8.86  , 8.86  , 8.86  , 8.86  , 8.86  , 8.08  , 8.08  , 8.08  , 7.24  , 7.24  , 6.26  , 6.26  , 6.26  , 5.1  , 5.1  , 5.1  , 3.62  , 3.62  , 3.62  , 3.62  , 3.62  , 3.62  , 3.62  , 3.62  , 0.0  , 0.0  , 0.0  , 0.0  , 0.0  , 0.0  , 0.0  , 0.0  , 0.0  , 0.0  , 0.0  , 0.0  , 0.0  , 0.0  , 0.0  , 0.0  , 0.0  , 0.0  , 0.0  , 0.0  , 0.0  , 0.0  , 0.0  , 0.0  , 0.0  , 0.0  , 0.0  , 0.0  , 0.0  , 0.0  , 0.0  , 0.0  , 0.0  , 0.0  , 0.0  , 0.0  , 0.0  , 0.0  , 0.0  , 0.0  , 0.0  , 0.0  , 0.0  , 0.0  , 0.0  , 0.0  , 0.0  , 0.0  , 0.0  , 0.0  , 0.0  , 0.0  , 0.0  , 0.0  , 0.0  , 0.0  , 0.0  , 0.0  , 0.0  , 0.0  , 0.0  , 0.0  , 0.0  , 0.0  , 0.0  , 0.0  , 0.0  , 0.0  , 0.0  , 0.0  , 0.0  , 0.0  , 0.0  , 0.0  , 0.0  , 0.0  , 0.0  , 0.0 );
                        kernels[8] = compute_kernel(x,   19.139999  , 37.619999  , 39.32  , 36.739998  , 42.200001  , 40.139999  , 36.559998  , 31.34  , 31.76  , 24.82  , 21.1  , 18.1  , 14.92  , 12.0  , 10.219999  , 8.86  , 6.26  , 3.62  , 3.62  , 0.0  , 0.0  , 3.62  , 3.62  , 5.1  , 6.26  , 7.24  , 8.08  , 8.08  , 8.08  , 8.08  , 8.86  , 8.86  , 8.86  , 8.86  , 8.86  , 8.86  , 8.86  , 8.86  , 8.08  , 8.08  , 8.08  , 7.24  , 7.24  , 7.24  , 7.24  , 6.26  , 6.26  , 5.1  , 5.1  , 5.1  , 5.1  , 3.62  , 3.62  , 3.62  , 3.62  , 3.62  , 3.62  , 0.0  , 0.0  , 0.0  , 0.0  , 0.0  , 0.0  , 0.0  , 0.0  , 0.0  , 0.0  , 0.0  , 0.0  , 0.0  , 0.0  , 0.0  , 0.0  , 0.0  , 0.0  , 0.0  , 0.0  , 0.0  , 0.0  , 0.0  , 0.0  , 0.0  , 0.0  , 0.0  , 0.0  , 0.0  , 0.0  , 0.0  , 0.0  , 0.0  , 0.0  , 0.0  , 0.0  , 0.0  , 0.0  , 0.0  , 0.0  , 0.0  , 0.0  , 0.0  , 0.0  , 0.0  , 0.0  , 0.0  , 0.0  , 0.0  , 0.0  , 0.0  , 0.0  , 0.0  , 0.0  , 0.0  , 0.0  , 0.0  , 0.0  , 0.0  , 0.0  , 0.0  , 0.0  , 0.0  , 0.0  , 0.0  , 0.0  , 0.0  , 0.0  , 0.0  , 0.0  , 0.0 );
                        kernels[9] = compute_kernel(x,   21.719999  , 29.179998  , 33.759998  , 28.719999  , 33.959999  , 29.4  , 30.059999  , 26.099998  , 23.18  , 19.139999  , 16.18  , 13.54  , 10.219999  , 8.08  , 7.24  , 5.1  , 0.0  , 0.0  , 0.0  , 0.0  , 3.62  , 3.62  , 5.1  , 5.1  , 6.26  , 7.24  , 7.24  , 7.24  , 7.24  , 7.24  , 7.24  , 7.24  , 7.24  , 7.24  , 7.24  , 6.26  , 6.26  , 6.26  , 6.26  , 5.1  , 5.1  , 5.1  , 5.1  , 3.62  , 3.62  , 3.62  , 3.62  , 3.62  , 3.62  , 0.0  , 0.0  , 0.0  , 0.0  , 0.0  , 0.0  , 0.0  , 0.0  , 0.0  , 0.0  , 0.0  , 0.0  , 0.0  , 0.0  , 0.0  , 0.0  , 0.0  , 0.0  , 0.0  , 0.0  , 0.0  , 0.0  , 0.0  , 0.0  , 0.0  , 0.0  , 0.0  , 0.0  , 0.0  , 0.0  , 0.0  , 0.0  , 0.0  , 0.0  , 0.0  , 0.0  , 0.0  , 0.0  , 0.0  , 0.0  , 0.0  , 0.0  , 0.0  , 0.0  , 0.0  , 0.0  , 0.0  , 0.0  , 0.0  , 0.0  , 0.0  , 0.0  , 0.0  , 0.0  , 0.0  , 0.0  , 0.0  , 0.0  , 0.0  , 0.0  , 0.0  , 0.0  , 0.0  , 0.0  , 0.0  , 0.0  , 0.0  , 0.0  , 0.0  , 0.0  , 0.0  , 0.0  , 0.0  , 0.0  , 0.0  , 0.0  , 0.0  , 0.0  , 0.0 );
                        kernels[10] = compute_kernel(x,   20.139999  , 18.799999  , 15.78  , 15.78  , 12.0  , 9.559999  , 8.08  , 5.1  , 3.62  , 3.62  , 0.0  , 0.0  , 0.0  , 0.0  , 0.0  , 0.0  , 0.0  , 0.0  , 3.62  , 3.62  , 3.62  , 3.62  , 3.62  , 3.62  , 3.62  , 3.62  , 3.62  , 3.62  , 3.62  , 0.0  , 0.0  , 0.0  , 0.0  , 0.0  , 0.0  , 0.0  , 0.0  , 0.0  , 0.0  , 0.0  , 0.0  , 0.0  , 0.0  , 0.0  , 0.0  , 0.0  , 0.0  , 0.0  , 0.0  , 0.0  , 0.0  , 0.0  , 0.0  , 0.0  , 0.0  , 0.0  , 0.0  , 0.0  , 0.0  , 0.0  , 0.0  , 0.0  , 0.0  , 0.0  , 0.0  , 0.0  , 0.0  , 0.0  , 0.0  , 0.0  , 0.0  , 0.0  , 0.0  , 0.0  , 0.0  , 0.0  , 0.0  , 0.0  , 0.0  , 0.0  , 0.0  , 0.0  , 0.0  , 0.0  , 0.0  , 0.0  , 0.0  , 0.0  , 0.0  , 0.0  , 0.0  , 0.0  , 0.0  , 0.0  , 0.0  , 0.0  , 0.0  , 0.0  , 0.0  , 0.0  , 0.0  , 0.0  , 0.0  , 0.0  , 0.0  , 0.0  , 0.0  , 0.0  , 0.0  , 0.0  , 0.0  , 0.0  , 0.0  , 0.0  , 0.0  , 0.0  , 0.0  , 0.0  , 0.0  , 0.0  , 0.0  , 0.0  , 0.0  , 0.0  , 0.0  , 0.0  , 0.0  , 0.0 );
                        kernels[11] = compute_kernel(x,   19.139999  , 38.299999  , 38.139999  , 39.139999  , 42.52  , 40.299999  , 37.619999  , 31.34  , 32.579998  , 24.82  , 21.4  , 18.459999  , 15.339999  , 12.54  , 10.86  , 8.86  , 6.26  , 3.62  , 3.62  , 0.0  , 0.0  , 3.62  , 3.62  , 5.1  , 6.26  , 7.24  , 8.08  , 8.08  , 8.08  , 8.86  , 8.86  , 8.86  , 8.86  , 9.559999  , 8.86  , 8.86  , 8.86  , 8.86  , 8.86  , 8.08  , 8.08  , 8.08  , 7.24  , 7.24  , 7.24  , 6.26  , 6.26  , 5.1  , 5.1  , 5.1  , 5.1  , 3.62  , 3.62  , 3.62  , 3.62  , 3.62  , 3.62  , 0.0  , 0.0  , 0.0  , 0.0  , 0.0  , 0.0  , 0.0  , 0.0  , 0.0  , 0.0  , 0.0  , 0.0  , 0.0  , 0.0  , 0.0  , 0.0  , 0.0  , 0.0  , 0.0  , 0.0  , 0.0  , 0.0  , 0.0  , 0.0  , 0.0  , 0.0  , 0.0  , 0.0  , 0.0  , 0.0  , 0.0  , 0.0  , 0.0  , 0.0  , 0.0  , 0.0  , 0.0  , 0.0  , 0.0  , 0.0  , 0.0  , 0.0  , 0.0  , 0.0  , 0.0  , 0.0  , 0.0  , 0.0  , 0.0  , 0.0  , 0.0  , 0.0  , 0.0  , 0.0  , 0.0  , 0.0  , 0.0  , 0.0  , 0.0  , 0.0  , 0.0  , 0.0  , 0.0  , 0.0  , 0.0  , 0.0  , 0.0  , 0.0  , 0.0  , 0.0  , 0.0 );
                        kernels[12] = compute_kernel(x,   21.1  , 18.459999  , 15.339999  , 12.54  , 10.86  , 8.86  , 6.26  , 3.62  , 3.62  , 0.0  , 0.0  , 3.62  , 3.62  , 5.1  , 6.26  , 7.24  , 8.08  , 8.08  , 8.08  , 8.86  , 8.86  , 8.86  , 8.86  , 8.86  , 8.86  , 8.86  , 8.86  , 8.86  , 8.86  , 8.08  , 8.08  , 8.08  , 7.24  , 7.24  , 7.24  , 6.26  , 6.26  , 6.26  , 5.1  , 5.1  , 5.1  , 3.62  , 3.62  , 3.62  , 3.62  , 3.62  , 3.62  , 0.0  , 0.0  , 0.0  , 0.0  , 0.0  , 0.0  , 0.0  , 0.0  , 0.0  , 0.0  , 0.0  , 0.0  , 0.0  , 0.0  , 0.0  , 0.0  , 0.0  , 0.0  , 0.0  , 0.0  , 0.0  , 0.0  , 0.0  , 0.0  , 0.0  , 0.0  , 0.0  , 0.0  , 0.0  , 0.0  , 0.0  , 0.0  , 0.0  , 0.0  , 0.0  , 0.0  , 0.0  , 0.0  , 0.0  , 0.0  , 0.0  , 0.0  , 0.0  , 0.0  , 0.0  , 0.0  , 0.0  , 0.0  , 0.0  , 0.0  , 0.0  , 0.0  , 0.0  , 0.0  , 0.0  , 0.0  , 0.0  , 0.0  , 0.0  , 0.0  , 0.0  , 0.0  , 0.0  , 0.0  , 0.0  , 0.0  , 0.0  , 0.0  , 0.0  , 0.0  , 0.0  , 0.0  , 0.0  , 0.0  , 0.0  , 0.0  , 0.0  , 0.0  , 0.0  , 0.0  , 0.0 );
                        kernels[13] = compute_kernel(x,   14.02  , 27.559999  , 28.959999  , 26.84  , 30.92  , 29.619999  , 27.32  , 23.74  , 23.18  , 18.1  , 15.339999  , 13.04  , 10.219999  , 8.08  , 6.26  , 5.1  , 3.62  , 0.0  , 0.0  , 0.0  , 0.0  , 3.62  , 3.62  , 5.1  , 5.1  , 6.26  , 6.26  , 6.26  , 6.26  , 6.26  , 6.26  , 6.26  , 6.26  , 6.26  , 6.26  , 6.26  , 5.1  , 5.1  , 5.1  , 5.1  , 5.1  , 3.62  , 3.62  , 3.62  , 3.62  , 3.62  , 3.62  , 3.62  , 3.62  , 3.62  , 0.0  , 0.0  , 0.0  , 0.0  , 0.0  , 0.0  , 0.0  , 0.0  , 0.0  , 0.0  , 0.0  , 0.0  , 0.0  , 0.0  , 0.0  , 0.0  , 0.0  , 0.0  , 0.0  , 0.0  , 0.0  , 0.0  , 0.0  , 0.0  , 0.0  , 0.0  , 0.0  , 0.0  , 0.0  , 0.0  , 0.0  , 0.0  , 0.0  , 0.0  , 0.0  , 0.0  , 0.0  , 0.0  , 0.0  , 0.0  , 0.0  , 0.0  , 0.0  , 0.0  , 0.0  , 0.0  , 0.0  , 0.0  , 0.0  , 0.0  , 0.0  , 0.0  , 0.0  , 0.0  , 0.0  , 0.0  , 0.0  , 0.0  , 0.0  , 0.0  , 0.0  , 0.0  , 0.0  , 0.0  , 0.0  , 0.0  , 0.0  , 0.0  , 0.0  , 0.0  , 0.0  , 0.0  , 0.0  , 0.0  , 0.0  , 0.0  , 0.0  , 0.0 );
                        kernels[14] = compute_kernel(x,   32.380001  , 25.34  , 21.719999  , 18.799999  , 15.339999  , 12.54  , 11.44  , 9.559999  , 6.26  , 3.62  , 3.62  , 0.0  , 0.0  , 3.62  , 3.62  , 5.1  , 6.26  , 7.24  , 7.24  , 8.08  , 8.08  , 8.08  , 8.86  , 8.86  , 8.86  , 8.86  , 9.559999  , 8.86  , 8.86  , 8.86  , 8.86  , 8.86  , 8.08  , 8.08  , 7.24  , 7.24  , 7.24  , 6.26  , 6.26  , 6.26  , 5.1  , 5.1  , 5.1  , 3.62  , 3.62  , 3.62  , 3.62  , 3.62  , 3.62  , 0.0  , 0.0  , 0.0  , 0.0  , 0.0  , 0.0  , 0.0  , 0.0  , 0.0  , 0.0  , 0.0  , 0.0  , 0.0  , 0.0  , 0.0  , 0.0  , 0.0  , 0.0  , 0.0  , 0.0  , 0.0  , 0.0  , 0.0  , 0.0  , 0.0  , 0.0  , 0.0  , 0.0  , 0.0  , 0.0  , 0.0  , 0.0  , 0.0  , 0.0  , 0.0  , 0.0  , 0.0  , 0.0  , 0.0  , 0.0  , 0.0  , 0.0  , 0.0  , 0.0  , 0.0  , 0.0  , 0.0  , 0.0  , 0.0  , 0.0  , 0.0  , 0.0  , 0.0  , 0.0  , 0.0  , 0.0  , 0.0  , 0.0  , 0.0  , 0.0  , 0.0  , 0.0  , 0.0  , 0.0  , 0.0  , 0.0  , 0.0  , 0.0  , 0.0  , 0.0  , 0.0  , 0.0  , 0.0  , 0.0  , 0.0  , 0.0  , 0.0  , 0.0  , 0.0 );
                        float decision = -0.018620366107;
                        decision = decision - ( + kernels[0] * -0.000301089462  + kernels[1] * -6.2537541e-05  + kernels[2] * -3.3442404e-05  + kernels[3] * -2.505532e-06  + kernels[4] * -1.2145628e-05 );
                        decision = decision - ( + kernels[5] * 1.7150025e-05  + kernels[6] * 5.371141e-06  + kernels[7] * 6.9001107e-05  + kernels[8] * 5.51645e-06  + kernels[9] * 3.8243423e-05  + kernels[10] * 5.1738923e-05  + kernels[11] * 4.746072e-06  + kernels[12] * 0.00013784329  + kernels[13] * 3.4658422e-05  + kernels[14] * 4.7451715e-05 );

                        return decision > 0 ? 0 : 1;
                    }

                    /**
                    * Predict readable class name
                    */
                    const char* predictLabel(float *x) {
                        return idxToLabel(predict(x));
                    }

                    /**
                    * Convert class idx to readable name
                    */
                    const char* idxToLabel(uint8_t classIdx) {
                        switch (classIdx) {
                            case 0:
                            return "eight";
                            case 1:
                            return "four";
                            default:
                            return "Houston we have a problem";
                        }
                    }

                protected:
                    /**
                    * Compute kernel between feature vector and support vector.
                    * Kernel type: poly
                    */
                    float compute_kernel(float *x, ...) {
                        va_list w;
                        va_start(w, 128);
                        float kernel = 0.0;

                        for (uint16_t i = 0; i < 128; i++) {
                            kernel += x[i] * va_arg(w, double);
                        }

                        return pow((0.1 * kernel) + 0.0, 2);
                    }
                };
            }
        }
    }
